{
    "edge_update": {
        "w1": [
            [
                0.04685986042022705,
                0.06151577830314636,
                -0.005472511053085327,
                0.302640825510025,
                -0.2457399070262909,
                0.24774548411369324,
                -0.24775254726409912,
                0.2788560688495636,
                -0.008320450782775879
            ],
            [
                0.23501333594322205,
                0.1497797966003418,
                -0.25191327929496765,
                0.15328511595726013,
                -0.29198217391967773,
                0.11927366256713867,
                -0.06532034277915955,
                -0.03351163864135742,
                -0.19614920020103455
            ],
            [
                -0.2042812556028366,
                -0.05356752872467041,
                -0.11655203998088837,
                0.2519697844982147,
                -0.13768407702445984,
                0.30093619227409363,
                -0.16102251410484314,
                0.1887136995792389,
                -0.15801629424095154
            ]
        ],
        "b1": [
            0.03067326545715332,
            0.16185975074768066,
            0.2179887592792511
        ],
        "w2": [
            [
                -0.40619325637817383,
                0.23509925603866577,
                -0.007427096366882324
            ],
            [
                0.2222585678100586,
                -0.1872023046016693,
                0.3276306986808777
            ],
            [
                0.5244345664978027,
                -0.261679083108902,
                0.4227102994918823
            ]
        ],
        "b2": [
            -0.13168585300445557,
            -0.30737006664276123,
            0.2924789786338806
        ]
    },
    "vertice_update": {
        "w1": [
            [
                -0.006708800792694092,
                0.20672255754470825,
                0.2077733278274536,
                0.4005502462387085,
                0.392522394657135,
                0.07474884390830994
            ],
            [
                -0.17699629068374634,
                -0.0037314295768737793,
                -0.031851381063461304,
                0.29461610317230225,
                -0.19000688195228577,
                -0.03381863236427307
            ],
            [
                -0.05786406993865967,
                -0.31555062532424927,
                0.327170193195343,
                -0.31956472992897034,
                -0.0801929235458374,
                0.3945605754852295
            ]
        ],
        "b1": [
            0.31093353033065796,
            0.3053356409072876,
            0.23146593570709229
        ],
        "w2": [
            [
                -0.2826747000217438,
                0.5063248872756958,
                -0.2295045256614685
            ],
            [
                0.08274680376052856,
                0.1432511806488037,
                -0.3184888958930969
            ],
            [
                -0.5193262696266174,
                0.03175067901611328,
                -0.1285756230354309
            ]
        ],
        "b2": [
            -0.1800800859928131,
            0.537725567817688,
            -0.2631365954875946
        ]
    },
    "output_update": {
        "w1": [
            [
                0.3885372281074524,
                -0.3662220239639282,
                0.19507193565368652
            ],
            [
                0.08187538385391235,
                0.36161595582962036,
                0.4929400682449341
            ],
            [
                0.5755181312561035,
                0.2371562123298645,
                -0.5465627908706665
            ]
        ],
        "b1": [
            0.4581946134567261,
            -0.2706689238548279,
            0.20998382568359375
        ],
        "w2": [
            [
                0.2282300591468811,
                0.28447335958480835,
                -0.3014463782310486
            ],
            [
                0.3445436954498291,
                0.45776891708374023,
                0.2587364912033081
            ],
            [
                0.23924720287322998,
                0.4661734104156494,
                0.05409044027328491
            ]
        ],
        "b2": [
            0.2946459650993347,
            -0.3029242753982544,
            0.42327427864074707
        ]
    }
}